5 16
0 0.09493212 -0.08725305 0.0915222 -0.044648916 -0.23298645 0.16305707 -0.32138476 0.10542491 0.19263376 0.064814866 -0.2871898 0.24670914 0.097430415 -0.2658728 0.26274368 0.15938722
1 0.109262876 -0.0615583 0.058481585 -0.018870225 -0.21950586 0.16115856 -0.33277607 0.1087526 0.15357967 0.06067648 -0.24951802 0.25101045 0.110635 -0.24520922 0.25934705 0.15138705
4 0.12336206 -0.051990304 0.10525176 -0.011065199 -0.20069613 0.15496999 -0.29416952 0.0821628 0.21991871 0.11084592 -0.29630667 0.23771128 0.15646857 -0.25548357 0.23891969 0.17283954
3 0.13578968 -0.06462952 0.050108105 -0.04906444 -0.17807943 0.15038139 -0.31885663 0.049514372 0.21012071 0.071872935 -0.32528928 0.21521123 0.17530726 -0.30458677 0.22510962 0.14920285
2 0.10246368 -0.06959359 0.027991528 -0.033785652 -0.1890035 0.1699018 -0.25632784 0.08854436 0.15781334 0.08289684 -0.23971003 0.21260378 0.14762783 -0.26875514 0.25014505 0.12003831
