5 16
0 -0.072034396 0.15680674 -0.14356168 -0.35167488 0.028696159 -0.049810372 -0.09838721 -0.11795653 -0.21734811 0.22715852 0.11339086 0.24428055 -0.08118623 0.019718347 0.11353134 -0.33152843
1 -0.046940606 0.20577592 -0.08648683 -0.33655396 0.07144442 -0.10503012 -0.10946798 -0.06874851 -0.20400421 0.24529098 0.062373564 0.2827209 -0.12381521 0.08887541 0.059547596 -0.36463112
4 -0.07554981 0.14767551 -0.122867845 -0.33821627 0.06737218 -0.07893349 -0.11140653 -0.10477558 -0.20839404 0.22315395 0.11009497 0.23895931 -0.06584327 0.014941962 0.081200756 -0.33949697
3 -0.048240896 0.17314167 -0.14192337 -0.35488182 0.05121561 -0.05953842 -0.09962638 -0.10925382 -0.20176694 0.22490709 0.104908094 0.24923868 -0.05957982 0.0141921155 0.068428956 -0.35220203
2 -0.07055681 0.17965674 -0.15518415 -0.36235636 0.048043072 -0.0568012 -0.077816725 -0.12299484 -0.22487147 0.22506271 0.0963391 0.26060528 -0.062473774 0.00925945 0.10556075 -0.33369863
